-1.3660383109566323;-1.381753390243347;1.3791050946411185;1.276126037813293;1.2783854689004686;-1.1255524775071679;-1.1013251303462983;-1.1511792750360661;0.93522126357115343;-0.90919363510535756;-0.90848335328141994;0.73624467566736451;0.84811067563753262;0.56239904847759825;-0.87264498291620674;0.51133239908376871;-0.51993569587358146;0.61029496852016818;-0.29936496893614356;0.33168757228714946;-0.23974058002482368;-0.19650813014802712;-0.21149346329573418;-0.27422206022480239;-0.20794736958328533;-0.028123167052332594;-0.056861388225984973;-0.069056931887609321;0.19519950519294735;-0.51558031371642288;0.5097213292092635;-0.38491153340513168;0.49237552620730207;-0.4724809779773132;-0.60624997741442144;-0.63298744911673155;0.68136841037923057;-0.71532154447185847;-0.7579928338260048;0.90952989174825249;0.89827244261515837;1.0161407522720307;1.1509485922813445;-1.0583318085674314;1.2001175658463055;1.1817527922627973;-1.2788045984018792;1.284880699684362;-1.3509503095594242;-1.3809634557655537